0.57016313 0.31380096 0.21954183 0.46559024 0.13442263 -0.12244365 -0.12122156 -0.072272345 0.017272508 -0.1279993 0.25084487 0.40030688 0.38811824 0.46610427 0.31616503 -0.17236114 -0.11730121 -0.10554777 -0.0870105 -0.5134777 -0.49094927 -0.45839727 0.010716174 0.36412537 0.47593322 0.6326883 0.14612013 -0.068862006 0.046162326 -0.25602826 -0.11344019 0.47774425 0.32258964 0.62406474 0.11178098 0.20667663 0.10203547 -0.10210894 0.36546052 0.30867127 -0.2677419 0.0252389 0.32611197 0.13185175 0.011321238 -0.40337005 -0.15793094 -0.24367976 -0.4928071 0.25813803 0.32652164 0.3068836 -0.0025162944 -0.056029696 0.28054547 0.1395536 -0.17356378 0.1122492 -0.077502005 0.37106508 0.6152365 0.16774929 -0.008239151 0.19246118 0.23433684 -0.8915099 0.3788405 -0.7420532 -0.4476591 0.22025865 1.0840163 0.27038094 0.39416102 -0.25454116 -0.084449746 -1.093458 -0.4017965 -0.7792297 -0.3723695 -0.13344696 0.017716872 -0.049413465 0.3949913 0.18124367 -0.5135234 0.3077492 -0.19381799 0.35287353 0.39562058 0.15616016 -0.3171109 -0.02451307 -0.10561521 0.22615941 0.6127478 -0.50004166 -0.73114526 -0.53338057 0.29627693 0.08634882 0.7490896 0.50171036 -0.67385745 -0.42178133 0.05436367 0.68128884 0.20209208 -0.5225609 0.32763615 0.6774082 -0.36726627 -0.5150318 -0.08387343 -0.020351155 0.4286746 0.13860591 -0.31724903 -0.2895231 0.21988168 -0.18465385 -0.4753125 0.5380576 -0.4810385 0.4682127 -0.58127 0.37778395 0.25599548 0.43965328 0.16750695 -0.48613283 -0.2715725 -0.438689 -0.31064355 -0.046481118 0.110546224 0.13011645 0.7115357 0.404907 -0.15286426 0.43704706 -0.49272022 -0.3803496 -0.5399381 0.1572816 0.46843332 0.48232737 -0.13604854 -0.5936143 0.09011658 -0.6112219 -0.018496862 0.008555767 -0.29938734 0.40790737 0.2877422 -0.11012055 0.37739417 -0.37475064 -0.28516984 -0.42557368 -0.49397776 0.20030604 0.34306237 0.26630178 0.053719267 -0.019883994 -0.7014204 -0.637674 1.7611394 -0.21572894 -0.014347463 0.12935752 1.1445014 0.6130334 -0.04603055 0.53053635 -0.75197935 1.1295322 -0.21964864 -0.56329536 0.6423857 -0.3585172 -0.16418356 -0.05338618 -0.45107082 0.49248418 0.33506185 -0.25010765 -0.3893635 0.14398006 -0.3941966 -0.5831833 0.55849385 0.2575569 1.0420305 0.09030324 -0.36551887 -0.71518457 0.79740214 -1.0562099 0.0013320668 -0.16270155 -0.24933897 0.47035694 0.69751865 -0.06549617 -0.66209906 -0.30733836 0.61427325 0.5110227 0.28166842 -0.55935717 0.6317496 0.8438496 0.14062318 -0.16373748 0.047841948 0.11066525 0.47602615 0.0786808 0.0034626399 0.276923 0.4488271 -0.3829886 -0.46912956 0.05624861 -0.8205176 -0.2050498 0.70380116 0.44726422 0.052708525 -0.44233465 -0.1224002 0.013727548 -0.1774664 -0.66794217 -0.3032371 0.021936996 0.2824086 -0.60966367 -0.53336906 0.54104555 0.7720299 0.7306821 0.48759905 -0.013862001 0.2775231 -0.4091195 -0.22612938 -0.21604967 0.06069041 -0.26758042 0.15345477 -0.5865708 0.118226774 0.1756932 0.0070798285 0.244214 0.13960515 -0.19015671 -0.28754875 -0.32055125 -0.3173947 -0.18909492 0.29969975 -0.6574295 -0.23515408 0.07315679 0.0037859003 -0.18315095 -0.36498752 -0.26136273 -0.15689561 -0.22075628 -0.2589123 0.12026341 0.24662778 0.3417764 -0.008463343 -0.046716336 0.27958882 -0.0015691387 -0.11467523 -0.3401644 -0.22393255 -0.1200273 -0.17146404 0.2464207 -0.14589089 -0.20327206 -0.101419196 -0.22189242 0.050835077 -0.014290002 0.21213984 0.13381378 0.13016024 -0.014190666 0.14396667 0.21300462 -0.11935618 0.19425787 -0.16253941 0.047168143 -0.17437404 0.21654464 0.09635397 -0.117966115 -0.4525859 0.14604825 -0.0036816015 -0.5694679 -0.48254415 -0.15703674 -0.3320322 -0.38745013 0.04761212 -0.1908706 -0.17624842 0.12564117 0.24035923 0.37822577 0.22500615 0.27395108 0.026201738 -0.31806603 0.36090747 0.40147611 0.21840143 0.021039685 0.21918374 0.108004004 -0.3377035 0.2215656 0.13364439 0.13808393 0.14310491 0.36080626 -0.11865778 0.38550946 0.4717219 0.4545983 0.04316525 0.16896658 0.23019442 0.0030455193 0.2851091 0.13688698 -0.03109696 -0.16837129 0.25793967 0.111569546 0.17598616 0.01992496 0.28363764 0.34487912 0.25500467 0.41590253 -0.051487103 -0.20242037 0.091790274 -0.005644218 0.08329717 0.02042302 0.34911275 0.34561634 0.086082906 0.13816494 0.20232514 0.33931962 0.31051052 0.2574903 0.17916659 0.013475991 -0.07721387 -0.023827195 -0.14698707 -0.22653803 0.012816538 0.14950776 -0.09838159 -0.2937596 -0.12837325 -0.03786409 -0.20808911 -0.010890903 0.038184594 0.03078224 -0.60727996 -0.33496112 -0.4326825 -0.51919425 -0.09440593 -0.07991322 -0.021069888 -0.22323544 -0.24095713 -0.06920118 0.13034135 0.1253762 0.2590357 0.16883656 0.115019865 -0.032249343 0.018030075 0.002922174 0.058586914 0.015383039 -0.077992894 0.27768484 0.13817312 0.0060399543 0.090777814 0.22667412 0.31470382 -0.15102765 -0.10400832 0.15391545 -0.101126015 -0.1345769 0.11211958 0.19812874 -0.06625502 0.004037111 -0.023539834 0.17489925 0.18752886 0.21276392 0.26984504 0.0010459484 0.10039511 0.01953309 -0.017755061 0.11824994 -0.17497782 0.012477901 -0.26427105 -0.031161236 0.027650395 0.282662 0.20998304 -0.013736691 0.13686942 0.046602715 -0.09721743 -0.2441348 -0.20034085 -0.1130592 -0.106498376 0.16070922 0.3068465 -0.107748166 0.028583698 0.23972544 0.017554324 -0.121411264 0.1810761 0.26419827 0.15892266 0.27976808 0.027393077 0.094109595 0.06712025 0.17067088 -0.06964292 -0.16827142 -0.034130126 0.2280048 -0.19770317 -0.0021920165 0.30085617 -0.085047685 -0.028175235 0.08697275 -0.0025669823 0.23826015 -0.17414561 0.09847095 -0.29574862 -0.40930858 0.060265478 -0.0031519355 0.075263835 -0.099325575 -0.23077832 -0.24751689 0.0926538 0.094088286 0.2253331 0.13730806 -0.037856787 0.10499764 -0.09168517 -0.21743807 -0.21801718 -0.18806975 0.16301045 0.13111292 -0.26601085 -0.17728694 0.22856638 0.12734638 0.22179122 -0.21182364 -0.31819484 0.19172962 -0.010576663 0.011615381 0.25278243 0.15424807 -0.03496232 -0.0034464935 0.078346424 0.0715783 -0.011839373 -0.21011572 0.1610226 -0.13842659 -0.09597965 -0.19709612 0.062423877 -0.07893322 0.10944502 0.34026435 0.04072348 0.119461514 0.15979022 0.22348283 0.42059398 0.22107466 0.020547666 0.2966826 0.18615967 0.08372515 -0.09428045 0.22213116 0.093776174 0.0052276547 -0.16411804 0.017868321 -0.19584394 0.11693953 -0.1574229 0.018146785 0.09293404 0.15528242 -0.12122906 0.04038686 0.102235526 0.10676114 0.16737796 -0.14121896 -0.41521916 -0.13772048 0.080965914 -0.21897982 -0.053801402 -0.20267539 -0.18215919 0.1412579 0.08656316 -0.017788969 0.23904608 -0.00012949946 0.07904361 0.2236802 0.03316877 0.17138676 0.060952343 0.3376484 0.19930513 0.117976196 -0.29503477 -0.19521487 -0.017119281 0.17091678 0.2704204 0.106312595 0.078505225 0.039736185 0.3585949 0.24972288 -0.1498026 0.0883996 -0.22040977 0.13811052 -0.0477527 -0.05371797 -0.059403334 -0.29594144 0.048039332 0.2029715 0.38348457 0.08593392 0.33001357 0.49143982 0.20960979 0.15207455 0.06854066 0.13639928 -0.36909315 -0.1236511 0.15170436 0.2059436 0.25606528 0.34821936 0.15876359 -0.05850509 -0.596883 -0.41333067 -0.08179763 0.21670629 0.41313714 0.3045764 0.15807511 -0.13923845 -0.21978384 -0.2750185 0.112396814 0.18138032 -0.011294591 0.06802627 -0.03750121 -0.012580699 -0.113370545 -0.24061705 -0.36024517 -0.35284716 -0.23106124 -0.35796458 -0.18522759 -0.1285479 -0.054317903 -0.3329724 -0.153678 -0.10027342 0.29481068 -0.017307676 0.02416051 0.07986088 -0.055510752 0.057908237 0.05445465 -0.05940458 0.22210006 0.16637449 0.26555705 0.01297541 -0.120139316 -0.12476018 -0.32006797 -0.18403663 -0.039833188 0.22043571 -0.17542437 5.3700034e-05 -0.040920906 0.210603 0.067126095 -0.09344321 -0.0027149606 0.083899856 -0.065060176 0.0040346845 0.16639781 0.036450688 0.108692944 0.025282027 -0.2232249 -0.09561601 -0.12822698 0.19049609 0.033210814 0.15668304 -0.07265465 -0.20649351 -0.06860298 -0.10123425 -0.31386033 -0.08865012 0.16691828 -0.29996213 -0.10193353 0.20987725 0.22968702 -0.0054966817 0.021608844 0.17587012 0.18449192 0.303382 -0.019939225 -0.10970582 -0.06588434 -0.5849708 -0.38945058 -0.22605252 -0.24640036 0.14585544 -0.09857628 -0.4074452 -0.18919203 -0.08782864 0.04955154 -0.3063623 -0.306757 0.006440263 0.12544625 0.0154497195 -0.23479769 0.19156972 -0.21695314 -0.27255416 -0.39825448 0.0255135 0.031834044 -0.088436335 -0.22855231 -0.28415093 -0.13500519 0.2546103 -0.03395086 -0.056611616 0.13537917 -0.29487282 0.13289388 0.09481985 0.24435683 0.17468376 0.26565343 0.17708358 -0.16785881 -0.08175784 0.30629334 -0.0785974 0.28798822 -0.11990895 -0.08089486 0.16796301 0.10698645 0.22662614 -0.026735371 0.022881322 -0.16383731 -0.1351992 -0.09788239 0.18838342 -0.011891806 0.22293608 -0.054404363 0.0755585 0.08181359 -0.060645096 -0.058014393 0.2452619 -0.036370426 -0.19714467 -0.22268349 -0.17172714 -0.32095936 -0.01376164 -0.0018151167 -0.13807146 -0.058388617 0.14687999 0.044301722 0.21063824 -0.15101758 0.3473408 0.03824836 0.02779392 -0.18714248 -0.26199776 -0.40538236 -0.093527935 0.2442892 0.24805158 0.24395514 0.26720914 -0.26246426 0.18097328 0.2304529 -0.08029068 0.2400876 0.065938875 0.023826413 -0.049960114 0.14964208 -0.10327384 -0.0022671556 0.14659724 -0.18118961 -0.43581197 -0.34309947 -0.10150266 -0.24188586 -0.27094096 -0.21560195 -0.0425062 -0.21534613 -0.036929574 -0.25852555 0.15943685 -0.21129405 0.1926277 0.23340313 -0.13158295 -0.055643324 0.30142632 0.43023953 0.3690055 0.1748173 0.33787125 0.00961247 -0.1361024 0.18540473 0.13625188 0.18737736 0.0536408 -0.16915897 -0.16948414 -0.06490991 0.00014733445 0.16607724 0.15060449 0.10300319 0.15586497 -0.03010378 0.13557248 -0.011621435 0.19481993 -0.018870078 -0.18527731 -0.41938365 0.07765376 0.013240682 -0.2646617 -0.12833783 0.19291355 -0.106196985 -0.07837991 0.18649907 -0.045186598 -0.13590194 0.21445294 -0.085414805 -0.038853504 -0.037637062 -0.042010847 0.061162714 0.13732208 0.30748996 0.24310228 0.10076891 -0.18036106 0.2460462 0.1359161 0.065036766 0.28644955 -0.07507961 -0.1447203 0.23459278 -0.07588232 -0.21268526 0.04846011 0.1601376 0.16934213 -0.13118187 -0.031210484 0.067202255 0.12216866 0.10370688 0.04476752 -0.13852145 0.0207497 0.03256898 -0.28707996 -0.19167735 -0.28500396 0.2814642 0.14097379 0.17965534 0.2732978 0.111906625 0.18444732 -0.17637421 0.044082105 0.019596301 -0.20727918 0.23966977 0.2399015 -0.09311948 -0.14682543 0.0849154 0.2800675 0.022698158 0.2265362 -0.077954486 -0.14572638 0.15384372 0.18773076 0.18253103 0.21256228 -0.048074365 0.0977928 0.017781856 0.114018254 0.049273875 -0.05597131 0.37557966 0.276192 0.022450807 0.4280199 0.19891137 -0.1893461 -0.31143665 -0.3023256 0.14712848 -0.114485174 0.49264282 0.10779571 -0.17441924 -0.15238729 0.14930303 -0.115437575 -0.003203417 -0.29542336 -0.25669253 -0.54005605 -0.18366976 0.7739265 -0.22530963 -0.27552202 -0.06759805 -0.06781929 0.73875535 -0.42538804 0.42758211 -0.42740816 0.16449387 -0.57034373 -0.38756675 -0.55377644 -0.16348103 0.11862015 -0.33997178 -0.6775057 -0.18954313 -0.3444845 0.9537364 0.54741716 0.4073739 -0.2272382 -0.46718442 -0.10680019 -0.4350084 -0.603531 0.43791023 0.5221315 0.37562075 0.16973801 0.2599615 0.10932 -0.2707606 0.32904536 -0.29069212 0.50474197 0.5563017 -0.06484833 0.055236626 -0.07163124 0.5180353 -0.14031321 0.16285363 -0.37632027 0.62819487 -0.4964135 -0.40988892 -0.4914414 0.04308706 -0.08113158 0.28985637 -0.23681386 0.45973608 -0.6862858 0.1730957 -0.63662887 -0.6148638 -0.24720971 0.0035314856 -0.043327067 0.08738641 -0.0007487795 0.15944162 -0.24634625 0.07845004 0.34356982 0.22689459 -0.2486977 -0.024158014 -0.135658 -0.027384127 -0.1871959 -0.25617352 0.2818007 -0.6796947 0.21205127 0.59727204 -0.22027972 -0.14332509 0.36119032 0.37153226 0.21876778 -0.46303415 0.7324003 0.018987393 0.056404207 -0.71631235 0.21315195 -0.0502365 0.63177127 0.06889771 0.2562258 0.32162982 -0.12527844 -0.1758278 -0.33834898 -0.3291809 0.24342413 0.42555165 0.31201404 -0.18923356 -0.0805431 0.059607834 -0.28128818 0.16204818 -0.10940609 -0.46785828 -0.044182442 0.30221897 -0.42212647 0.052964084 0.4160123 -0.06380848 0.55686796 -0.40947574 0.7179466 0.51852554 0.39636102 -0.47778234 -0.29115954 0.50140876 0.090659745 0.19994499 0.24722084 0.7599999 -0.39960966 0.15103573 0.07286299 -0.0011939458 0.18873739 -0.1132431 0.08368132 -0.24794164 -0.3077441 0.3133548 0.25477362 0.2338635 -0.32326627 0.50567687 -0.1055839 0.15725933 -0.45700273 -0.26189867 -0.21700734 0.30507612 0.25138956 0.42344627 0.50970846 0.5560749 0.18671821 -0.02787286 -0.24761099 -0.08543963 -0.107908376 0.38789332 -0.28324342 -0.51785195 0.30437812 0.41419482 -0.43507022 0.577736 0.23341388 0.43843156 0.2586201 0.3682061 0.05838515 0.67934656 0.095621906 -0.20563194 0.29191738 0.5431998 0.10737 0.22875707 0.050748494 0.006604803 -0.00084772846 0.10180315 0.47978118 -0.031279773 -0.09568323 0.21906605 -0.3082461 0.35736296 -0.17031382 -0.15554945 -0.021645792 -0.2419874 0.51283735 0.12198633 0.20825489 -0.48461306 0.22979376 0.16511679 -0.33212575 -0.3098902 0.21120602 -0.14034285 0.79736084 -0.08485726 0.39185697 -0.27301916 0.08293664 0.28348583 0.44091824 0.09425265 0.17820753 0.008250888 -0.09331123 -0.08590017 0.094978094 -0.21144614 -0.24883583 -0.0117200315 0.1886162 -0.39390147 0.010857886 -0.017936595 -0.1609772 0.39277926 -0.115606084 -0.27893892 -0.40776172 -0.21882111 -0.21278676 0.30209577 0.34925944 -0.030161943 -0.44107726 0.22479808 0.2034567 -0.13878053 -0.26075554 0.05188018 -0.04212737 -0.37343428 -0.07910068 -0.20333815 -0.035530925 -0.1532106 0.42229477 0.26457193 -0.40124607 -0.112983614 -0.066301495 0.06834037 -0.14503196 -0.09292518 -0.12576671 -0.3361798 -0.28227606 0.21120633 0.35444587 0.05619978 -0.18653756 0.47619876 0.32569158 -0.3350482 -0.16946797 -0.18628663 -0.42625415 -0.07453507 0.5358285 -0.53975976 0.01315082 0.0040530902 0.14650297 -0.081366636 0.3269401 0.5445933 0.25079197 -0.18473972 -0.34350336 0.36078292 -0.10467743 0.38712057 0.1624186 -0.20932625 0.27713892 -0.15998639 0.40735823 0.309533 -0.06768143 0.02803257 -0.24456353 0.011205656 0.21133779 -0.03148131 -0.2527997 0.47243288 0.178016 -0.07244749 0.1782163 0.17920025 0.29906747 -0.37541318 -0.080902785 -0.23686512 0.14844663 0.30043438 -0.032466047 0.15280405 0.2402145 0.0645558 -0.3216334 0.00735719 0.36235088 0.12071586 0.031428896 0.031351075 -0.06840235 -0.14471832 -0.26551872 -0.018298082 0.23826851 0.031356245 -0.33302054 -0.17611045 0.0075679934 -0.17692974 -0.04210641 0.18990077 0.09036625 -0.17673269 -0.34694448 -0.24146411 0.08762134 0.24728474 -0.2605194 -0.25541174 -0.084530935 0.15947333 -0.35084283 0.27349022 -0.16871266 0.12671074 0.32323208 0.28605834 0.130459 0.051877093 -0.27553675 -0.2065634 0.14913437 -0.11412051 0.12721053 -0.01302299 -0.14560522 0.12503901 0.22479793 -0.20725505 0.28085482 -0.21980022 -0.027969534 -0.12872869 0.1349465 -0.1774832 0.010288743 -0.32077459 -0.32109272 -0.22491118 0.36607572 -0.11402597 0.16836683 0.16030665 0.14069486 -0.27792323 0.102982216 -0.06367269 -0.2391844 0.14087136 -0.04757061 0.01957477 -0.37594733 0.26096073 0.31932676 0.069329716 0.13583794 -0.082280844 -0.07012279 -0.360021 0.42049968 -0.19748585 0.17435724 0.9174795 0.5759947 0.48702762 0.50912476 0.28648016 0.13381743 0.021865608 -0.3798747 0.3345845 0.7988139 0.63850075 -0.38124534 -0.7644372 0.42943957 -0.4478402 -0.018346155 -0.39053652 0.3839248 0.13611093 0.381397 0.2182711 0.8398969 -0.62184644 -0.29231167 -0.5398638 -0.6012314 -0.37531447 -0.24726635 0.39092022 0.43967828 0.19543865 0.05780671 -0.8322234 -0.4609041 -0.44059247 -0.22833754 0.3493985 0.48923206 0.69460917 0.64027405 0.32434842 0.15147169 -0.030712454 -0.67174345 0.8836532 0.2901736 0.1914928 0.6506975 -0.5753588 -0.4176657 -0.37463188 -0.3767896 -0.17211948 0.6245162 -0.4080719 0.086666115 -0.5981435 -0.6790506 -0.21300206 0.21273883 0.49831608 0.2899678 0.60463655 -0.36530042 0.19571634 -0.1458066 -0.19065894 -0.18416555 0.58358777 -0.5062843 0.13587008 -0.0057280925 -0.23667705 0.33761817 0.1722558 -0.018583927 0.3675453 -0.16391575 0.3797252 0.31808537 0.81751984 0.48445228 -0.2532919 0.59211946 -0.092850685 -0.32522985 -0.25699916 -0.2582472 0.34673536 -0.11198422 0.589363 0.2772863 -1.0980377 -0.29753757 0.7123691 -0.18167521 -0.34844968 0.3786312 -0.23267722 -0.17459983 0.5446898 0.28416312 0.4686849 -0.41973773 -0.41797873 0.05229935 -0.25180188 -0.47226238 0.42844078 0.13754942 -0.3921904 -0.20214337 -0.19145717 0.50723696 0.28090104 -0.38424012 -0.662594 0.5030963 0.22835487 -0.06942111 -0.31412974 0.41467047 -0.510119 -0.30141586 -0.29040688 0.1756997 -0.21976998 -0.3939741 0.6579809 0.43386617 -0.15242626 0.50214005 0.28059164 0.6475772 0.10550565 -0.13760455 -0.27353907 -0.041164186 0.5465859 0.43117324 0.2248813 -0.45669973 -0.011451148 -0.1342321 -0.46038532 -0.09639044 -0.0113314465 0.25855386 0.08280634 -0.36704 0.17501289 0.20636672 0.50001293 -0.049782705 -0.24582952 -0.43140385 0.09547938 -0.28813714 -0.09579968 -0.21008998 -0.009582261 -0.0818851 -0.30186832 0.4130929 -0.4902461 0.4902917 -0.29959145 -0.5433296 0.2251135 0.012139771 0.5724191 -0.15523635 -0.40978658 -0.1328682 0.3572266 -0.084913604 -0.48276407 0.39890638 -0.071553014 -0.41393974 -0.012539736 0.3578953 0.4869367 -0.30234197 0.20851512 0.039657544 -0.3019172 -0.53764147 0.38035554 0.4036754 -0.28776357 0.33459657 -0.37136492 0.17355758 0.17411126 0.3804276 0.013938495 -0.11109403 0.058928873 -0.41392818 -0.01734361 0.13270581 -0.117994204 -0.2936 -0.04383265 0.27985397 -0.22764379 0.021209322 -0.4895521 -0.374352 0.22890583 0.49402794 0.18467359 0.34937045 -0.17840372 -0.53319216 -0.06170503 -0.20567532 0.2290514 0.12113598 -0.115145534 0.54172605 0.23286021 0.1716251 0.21226554 0.020610107 -0.44133958 -0.16432871 -0.17165224 0.38156965 0.1971643 0.16191682 0.14962874 0.043936487 -0.45337927 0.03064475 -0.038778193 -0.22639379 -0.20889509 0.37904844 -0.13126794 -0.14739634 -0.09971432 0.25406653 0.23775473 -0.25843233 -0.18983132 -0.47079483 -0.13680054 0.032182854 0.12739784 -0.27813527 0.30987847 -0.5391238 -0.2109223 -0.50603294 0.17986459 0.24090643 0.09364618 -0.027861258 -0.32622346 -0.103357844 -0.31002414 0.34503737 0.20460977 -0.21047784 0.049011465 0.09789609 0.03927741 -0.41567135 0.17232789 0.51398385 0.056552164 -0.091770686 0.11940795 -0.3062894 0.008426591 0.03482585 -0.06020094 0.2997333 0.1585404 -0.22559892 -0.20129395 0.39264253 0.25535497 0.0903128 -0.25332004 0.03299042 -0.28361267 -0.37071195 0.18108606 -0.21805727 0.1590994 -0.17961755 -0.020392012 0.2739302 0.28584984 0.102104984 0.45267966 0.36697924 0.21644938 0.14762443 0.29243872 0.05077017 0.15319128 0.13734944 0.14049675 -0.40262902 -0.25446406 0.29576218 -0.1409106 0.19086625 0.010806267 -0.39907563 0.42926207 0.3674148 -0.23004898 -0.04178831 0.27770048 0.26631898 0.29310435 -0.36669135 -0.053856302 -0.062612675 -0.31315672 0.33828008 -0.35665107 -0.3830425 0.45086586 -0.2801786 0.24446745 -0.1808095 0.26190954 -0.20634337 -0.206763 0.05884906 0.20378938 0.26981118 -0.22391073 0.23687768 -0.31224114 -0.37069702 0.14084621 -0.11546052 0.3691435 0.07274805 -0.29725033 -0.35269052 -0.28138298 -0.5273582 -0.2566106 -0.08513453 -0.039743308 0.31408322 -0.15095195 -0.32581136 -0.13044113 0.024225626 -0.31871077 0.29385537 0.16938727 0.10592304 0.119295344 0.26528102 -0.23658107 -0.15022933 0.21157347 0.20092368 0.012894253 -0.23085667 -0.11954124 -0.16038139 -0.4442034 0.0519845 -0.008450903 -0.35838673 0.35682634 -0.21249788 0.07061242 0.1403122 0.39948097 0.15570149 0.37537462 -0.12955333 -0.08544058 -0.074381106 0.42144063 0.2937672 0.18437055 0.17510499 0.23901309 0.10210749 0.07295167 0.01520215 -0.30441004 0.2990548 0.07483624 -0.065315664 0.2167495 0.123290196 -0.22818786 0.07591745 -0.04658774 0.006206777 0.13851307 -0.12943412 -0.26235127 -0.089497596 -0.069062464 -0.042085107 -0.07569484 -0.26004323 -0.08679732 0.07938552 0.084933475 0.08941508 0.24868156 0.18417275 0.13113873 -0.039226167 0.2501699 0.27950808 -0.113777116 0.002252716 -0.15576312 -0.26932302 0.06321692 -0.18948282 0.0035206056 0.14852975 -0.08079557 -0.10685348 -0.21214949 0.14593351 -0.17646995 0.09808904 -0.038586844 0.23082228 0.18809117 -0.03940447 0.0302369 0.040973127 0.22931871 -0.07953811 -0.07989793 -0.060015682 -0.2109412 0.118691154 -0.12135514 -0.09446817 0.17218985 -0.19940946 0.12423447 0.16462104 -0.033910915 -0.09809332 0.23696424 -0.063124254 0.16638628 0.008366862 0.020201916 0.20045109 0.116879515 0.2152894 -0.12503842 -0.044432934 0.1227205 0.121411316 -0.07327572 0.038598668 -0.12181044 0.039792378 -0.05607607 0.07058957 0.31103057 0.18292028 -0.13804129 0.08491314 0.14862315 0.045458414 -0.081085615 -0.08174748 0.063195534 -0.0386019 0.15667592 0.16914734 -0.09001273 0.03840798 0.12539877 -0.05955382 -0.11799501 0.112132825 0.07282127 -0.08848342 0.015125684 -0.0755897 0.18004343 0.12867473 0.03850703 0.111352876 -0.106144175 0.13162023 -0.2549864 -0.12209346 -0.15295395 -0.368134 -0.30086794 0.18925758 0.10780187 0.09081283 0.023620207 -0.10494618 -0.14515921 0.11606523 -0.11287352 0.11261744 0.19858816 0.32285413 0.111961834 -0.2255561 -0.23529626 -0.17025715 0.0010284313 0.13387412 0.04799263 -0.24290177 0.0449065 0.0847614 0.17918305 0.10825721 0.11246489 -0.08804565 0.25391674 0.22734748 0.18041508 -0.12524803 0.09166195 0.01098103 0.058422726 -0.045228634 -0.039323583 0.018282294 0.29938984 0.1003911 -0.05362233 -0.032333862 0.096863545 0.0127767585 -0.15331255 -0.08375003 -0.019133009 0.22127868 8.970567e-05 -0.013404877 0.024046702 0.2133983 -0.06380513 0.07025866 0.30449992 -0.033457853 -0.11390108 0.07199128 -0.035195936 -0.13432221 -0.08510225 -0.08528485 0.17415352 0.19261618 0.15039396 0.050431788 0.06473044 -0.0030481787 -0.06285482 -0.23340096 0.2538927 0.15736777 0.10376824 0.28727597 -0.16479808 0.08644454 -0.018563429 -0.07992567 0.23723602 -0.015278681 0.109313935 -0.3439075 -0.13535108 0.3332164 -0.060764164 0.17442283 -0.29701152 0.053418044 0.13542481 -0.08860653 0.022151204 0.1747268 0.025440661 0.058425516 0.030424269 0.12292851 0.059150107 -0.19718586 -0.24744458 -0.14579898 0.13552733 0.083208345 0.19295351 0.09441315 0.038382698 0.06359499 -0.12663534 0.06319511 0.15628754 -0.23472203 -0.22170839 0.15689261 0.008165828 -0.12745889 -0.17856796 0.2859376 -0.12579554 -0.44603592 0.13653903 -0.11100379 -0.05688685 0.17129567 -0.15398018 0.0059712683 -0.044400062 -0.049848516 0.16157036 0.185578 0.0027202435 0.043027256 0.04661843 0.015553559 -0.1507955 0.12563059 0.045350555 0.23398837 0.14321627 -0.09250359 -0.05349521 0.12400979 0.029241584 -0.16132648 0.07278797 0.14712392 -0.09381202 -0.1218943 -0.16700782 -0.14543201 0.23837173 0.23627192 0.12868826 -0.07779773 0.14944263 -0.005455804 0.16867387 -0.12047911 0.08322647 -0.33942294 -0.19055186 -0.20811811 -0.11414358 0.16264634 0.109990194 -0.06424968 0.18497582 0.16939409 -0.07480315 -0.07432815 0.20535734 -0.06911855 -0.04060825 -0.17134091 -0.2759272 -0.32141435 0.11828527 -0.045775637 -0.1557532 -0.13476203 -0.098085046 0.15028708 -0.23328663 0.02615949 0.18146566 -0.056664675 -0.070750274 0.1230219 -0.07115513 -0.6251405 0.08852835 -0.10805087 -0.18659589 -0.07786359 -0.21953543 0.06524512 0.17579728 -0.01122216 -0.48046783 -0.23998137 0.11797966 0.028270172 -0.1530476 -0.07671274 -0.016784173 0.19427335 -0.34061807 -0.041362014 0.24989848 -0.12922776 0.0429197 -0.1569375 -0.2598134 -0.13054387 -0.1311727 0.06952188 0.13548772 0.04710292 0.043414965 -0.2782792 0.06186805 0.065587856 -0.17256068 -0.16247734 0.11600767 -0.105706446 -0.13527542 -0.06288283 -0.14275926 0.057842337 0.053929955 -0.0037486262 -0.172201 0.11106131 0.044997178 0.06319916 0.14189719 0.11586898 -0.18281665 0.08530662 -0.19521032 -0.2761085 -0.06421093 0.13718046 -0.08035487 0.20295827 -0.14181823 -0.16939393 -0.092156164 0.032839302 0.045146413 0.14830029 0.19562328 0.21519953 0.25858757 0.18225305 0.06852053 0.00985241 -0.12280326 0.006807949 -0.02590925 0.068140864 0.025985079 -0.01990529 -0.16574185 0.13241284 0.042264067 0.19148757 0.1017968 0.009548103 0.015488201 -0.017017122 0.030959355 0.13505831 -0.057109516 -0.3043169 -0.3903398 0.13269703 0.07680653 0.19146188 -0.09404506 -0.07783727 0.005893841 0.09714121 -0.16352886 -0.024309646 0.07768162 0.074035645 -0.27128112 -0.054607768 -0.06028004 0.17255779 0.01866083 -0.20103043 -0.23080973 0.32591337 0.2451425 -0.18080576 0.19928643 0.0008422433 0.18733631 -0.14144093 -0.056985676 0.046896398 -0.26596788 -0.16447367 0.13765174 0.09582737 0.101394504 0.14743324 0.15192786 -0.27629808 0.07423847 -0.06378269 -0.097413 -0.08679674 -0.13209909 0.088803515 0.014889993 -0.12351261 -0.043406844 0.078226715 0.12882063 -0.046692874 -0.028260402 0.15264381 0.22190785 -0.019885687 0.046467677 -0.15035614 0.19744416 0.12147591 0.21603991 -0.2118367 0.07585698 -0.02650986 -0.112537906 0.15089892 -0.028877081 -0.010648701 0.047607582 0.28497443 -0.2673099 -0.06196795 0.067230895 -0.060125187 -0.13306382 -0.22564332 -0.011847149 -0.21857727 -0.04656932 -0.10324186 0.1826693 0.029766982 -0.29232898 0.18001802 -0.09950241 -0.08795963 -0.052126884 -0.110785596 0.12711355 0.12658721 0.10507916 -0.11502688 -0.14684135 0.19422433 -0.038237263 0.23476331 -0.026064953 -0.12325291 -0.0071441564 0.12990163 0.031959537 -0.07034637 -0.021892456 -0.16334857 0.17798643 -0.040263366 -0.21106504 -0.22909574 -0.11975496 -0.2253385 -0.13662234 0.099572934 0.20038414 0.19876261 0.057804868 0.0921679 0.0152058285 0.10728596 0.029069694 0.042710055 0.111681275 0.044982135 0.029115077 0.17891595 0.20803663 -0.11886956 -0.30767244 -0.21457179 0.17091303 -0.13313031 0.31937295 0.26596314 0.13287169 0.072277606 -0.06838469 0.06406375 0.015836932 0.13873564 0.038368724 -0.118615456 0.055993136 -0.13568905 0.30855992 -0.06926435 0.033676624 -0.20579062 0.042887904 -0.11258546 0.15951465 0.27793318 0.26303107 0.23826972 0.17714596 -0.17970972 -0.07261869 -0.251165 -0.034339666 0.07889485 -0.09715589 0.13490738 0.20861895 -0.12964965 -0.14783959 0.0139921345 -0.18769164 -0.024161259 0.2635772 0.17658922 -0.06546596 -0.18610781 -0.50466764 -0.3883151 0.03185334 -0.03607563 0.11638823 -0.0809672 0.10766096 -0.16924287 0.0023438584 0.08889207 -0.19282578 0.014594136 -0.15464075 0.13225617 0.008057928 -0.0982043 0.28634146 0.042019848 -0.19176298 -0.038983285 -0.16874635 -0.11622105 -0.11953347 -0.15656625 -0.15857266 0.3211148 -0.45622292 -0.13653074 -0.1266951 -0.01295189 0.020208318 -0.043739006 0.028485287 -0.032194387 -0.19193663 0.012465062 -0.054090813 -0.42056194 -0.21910655 -0.16580468 -0.062374324 0.026838934 -0.25901514 -0.04391078 0.0076631396 0.14384988 0.13379048 -0.08250948 0.07102668 -0.14406955 -0.10533956 0.008913844 0.07006752 0.12898014 0.43142965 -0.19872335 0.122763336 -0.025468912 -0.124920554 0.20882507 0.24990056 -0.09108359 -0.3099404 -0.089009956 0.37377527 -0.1561574 -0.027173098 -0.14381945 0.26139846 0.09424257 -0.17233805 0.2815159 -0.045754932 -0.15628311 0.04098045 -0.038743436 -0.23305373 -0.01222303 -0.010731426 0.05578762 0.2872201 0.11724527 0.14058831 -0.10359436 0.21307683 0.056928992 -0.21108659 -0.19983548 0.015402814 0.11939782 -0.18975557 0.07547959 0.080361634 -0.03872279 0.006894312 0.036902096 -0.009703466 0.02552752 -0.08507259 0.0007625336 0.012180617 -0.043227207 -0.13257748 0.16242594 0.09933442 -0.06545683 0.22912437 -0.2079064 -0.11046783 -0.10428675 -0.17189756 0.14140818 0.10805688 0.07468508 -0.0016108386 0.018035265 0.3362885 0.029257359 0.10345433 0.2128261 -0.09830972 -0.19705492 -0.3003293 -0.11959813 -0.19879206 -0.033200413 0.21104212 -0.042231176 0.1831217 0.1289591 -0.0691933 0.026236894 0.058749568 -0.12710188 -0.16058181 0.013482484 -0.16945797 -0.2547548 0.015152448 -0.29443136 -0.02215346 -0.021512229 0.1411188 -0.09912207 -0.33660588 -0.57511544 -0.09487302 -0.23100194 -0.32924742 -0.08306083 0.06477847 0.012946517 -0.052127726 -0.079190746 0.019845098 0.04131961 0.007014792 -0.69286233 0.076019965 -0.14618742 -0.019786382 0.014870116 0.11260585 0.030964661 -0.14405794 -0.1579442 0.05798118 0.21104223 -0.14740239 0.027853208 0.053813875 -0.1919667 -0.32714754 0.12676667 0.0022342177 -0.001198217 -0.075805314 0.07942781 0.06381275 0.21773404 -0.06428492 0.059129737 0.19924566 0.04204538 0.13602489 0.2515872 0.08307351 -0.043117236 0.07353053 0.06687483 0.08800688 0.036536116 0.014453816 -0.1307018 -0.089335635 -0.050767075 -0.32404897 -0.021394897 0.1653365 -0.0432773 0.21359938 -0.116896346 0.1022547 -0.04277644 -0.03140165 0.10922798 -0.27496204 -0.33508036 0.12270268 0.08040029 0.107415065 0.10169781 -0.119415745 -0.16235411 -0.066795714 0.097716495 -0.16841953 -0.013381846 -0.059112176 0.091797926 0.1949212 0.025997285 -0.13827926 0.015377549 -0.121593 0.16642718 0.1888108 -0.14558852 0.08424245 -0.19626229 0.15707213 0.08060989 0.20398107 -0.040943865 0.06399943 -0.097368285 0.129353 0.22275563 -0.06751553 0.025100581 0.15176848 0.16090119 -0.045494102 0.028123489 0.07797304 0.036232207 -0.040164724 0.019179676 -0.012807234 -0.22373033 -0.2074422 -0.100858636 -0.11986539 0.0861734 -0.22650935 -0.063561454 0.08969651 0.2144996 0.15878138 0.15567373 -0.2531813 -0.20865987 0.018848108 -0.08207643 -0.12823601 -0.01617163 0.051922113 -0.29040122 -0.090872385 -0.13072614 -0.114765085 -0.17982346 0.047091033 0.08469051 0.12731618 0.14415437 0.027632311 -0.10693509 0.09869254 0.1878604 -0.053703815 -0.14836478 0.25505206 0.13056879 0.10604601 0.14134827 0.24304564 0.10971053 -0.06381621 0.08104061 0.052047644 -0.0739856 0.0113501325 -0.12321005 -0.089547075 0.013675135 0.23619594 0.04439274 -0.07843777 0.07515671 -0.1691587 0.26468024 0.107343294 0.07057752 -0.08039601 -0.1734025 -0.009249215 0.027556535 -0.23897125 -0.2102557 0.03720098 -0.20756786 -0.04592669 -0.18434882 0.1385506 0.2206751 0.26624373 -0.2763657 -0.23457378 0.03214292 0.022599535 -0.018980114 -0.22024469 -0.19211417 -0.20760313 -0.16612549 -0.062579095 0.22270168 0.13582836 -0.26786342 0.19541098 -0.09162122 0.08320288 0.08339384 -0.017681224 -0.03385511 0.0076586707 -0.14481002 0.15779513 -0.07647588 -0.0087873 0.10532439 0.08924317 0.0005450088 -0.1061727 -0.1610911 -0.1409838 0.24851274 0.10637988 0.14163402 0.053294905 0.005075861 -0.13291073 -0.38711512 0.08159819 -0.09870383 -0.01073027 0.025812369 0.10744891 0.16168366 0.19116364 -0.12342679 0.093286954 -0.027449021 -0.3298026 0.07440443 0.20260108 -0.13332188 0.103818566 0.070899874 0.004296357 0.11291648 -0.15778776 -0.20514189 -0.06394081 -0.030063868 0.07358941 0.11342067 0.13842724 0.22263509 0.20392519 -0.1658442 -0.15910107 0.004955592 0.18195604 -0.11994598 0.20125556 -0.084100835 -0.19720833 -0.21225682 0.033413995 0.041955885 0.0020578087 0.08427051 0.26040637 -0.0005146272 0.0019386847 0.1513444 0.035604786 0.16710602 0.05795427 -0.108775094 0.06864744 -0.025529632 0.0030555641 0.1464541 -0.061311163 -0.10074122 -0.10416995 0.10824199 -0.13748835 0.06424964 -0.066062346 0.17804319 0.13019611 0.14801595 0.08299994 -0.055752352 -0.13061602 0.19929232 0.1891298 0.068876974 0.15826102 0.20260604 0.12035302 -0.18808223 0.013754836 0.0670174 0.29446492 0.24853799 -0.038420133 -0.04931327 0.17643063 0.13320692 -0.16595767 -0.31953356 0.13785273 0.017584158 0.02908308 0.085502334 -0.0680536 0.29973823 -0.05968375 -0.15478101 -0.04814594 -0.2653697 0.19155009 -0.05259358 -0.011420316 -0.019535815 0.24911325 0.12199917 -0.12836818 0.0024383746 -0.08630848 -0.18073183 0.21713866 -0.01358677 0.090368055 -0.19369812 -0.27479956 -0.06648956 0.04598876 0.20042951 0.1602271 -0.1601616 0.094160706 -0.11221481 0.010519191 0.19975978 0.21564552 -0.1962089 -0.14922456 0.15039337 0.0890205 0.18856731 -0.0018957818 -0.16691525 0.1669306 0.019777913 0.1943403 0.0050565554 0.18995412 -0.15128304 -0.08846071 0.01205788 0.18666545 -0.22577795 -0.09011944 0.2179682 0.27737665 0.21194826 0.20849876 0.049889818 -0.022682093 0.17735597 0.07475151 -0.15424234 -0.18767545 0.038299322 0.11125062 -0.0766039 0.10600112 0.019411953 0.12052723 0.1657658 -0.2373066 -0.265208 0.07908229 -0.19555415 0.008031643 0.034550276 -0.23540027 0.134703 -0.14224634 -0.008490416 0.018615494 -0.0014067072 0.15904832 0.16502112 -0.10878829 0.18054481 -0.1528331 0.115229785 -0.009941064 0.071622334 0.055888057 0.05072602 0.26957056 0.2551125 -0.12011236 -0.24593322 -0.09417867 -0.1587281 -0.119061895 -0.19393712 0.232024 0.1718821 0.028996412 0.06864417 0.11339363 0.10910714 0.13545571 0.007584633 -0.16048965 -0.016473409 -0.11567833 -0.030646255 -0.20787846 -0.07754402 -0.124582976 -0.119319774 -0.051831994 0.12050571 -0.14084196 -0.1290492 -0.10489233 0.094533116 0.18450965 0.2208578 -0.038663812 -0.008507408 0.024943978 0.2811639 -0.1343402 -0.12546235 0.094955415 -0.28620312 -0.16032799 0.09410992 0.12886757 -0.025620447 -0.17460322 0.1114578 -0.12038141 0.12652726 -0.0666213 -0.34888974 0.08862735 0.15428321 0.026092859 0.104715586 -0.113672286 0.25732413 0.046406876 -0.22756974 -0.20273668 -0.27512184 0.29195532 0.0343985 -0.04985706 -0.060631115 0.11202905 -0.01787181 0.12811844 0.20343383 -0.10973476 0.19883786 -0.05316506 0.014001855 -0.20482619 -0.00820243 -0.15805638 0.0038793127 -0.12546706 -0.37931943 -0.28102326 0.1273713 0.12667184 -0.16025208 -0.08914923 -0.05279728 0.09075192 -0.19146246 -0.3886316 -0.023236131 0.09614627 0.12242879 0.17847303 -0.03352311 -0.2110907 0.13258992 0.2780525 0.10679436 0.09525011 0.036199335 0.20629561 0.24406746 0.037558705 -0.30875272 0.037087794 0.07882159 -0.33552423 -0.0017253344 0.21137616 0.10877313 -0.22584996 0.015249715 -0.14363202 -0.11626692 -0.15541512 -0.36742988 0.120783694 -0.009425732 0.2202054 0.045912486 -0.18605192 0.22664894 0.05636944 -0.2482267 -0.23100293 0.3001425 0.20382111 0.06179026 0.19721025 0.05356079 0.133286 0.08982262 0.014436439 0.1159071 0.10004925 0.05096415 0.21260075 0.061048064 -0.23750083 -0.077653915 -0.11978761 0.052275095 -0.078499265 0.1994825 -0.0716732 -0.047193762 0.14076586 0.121481664 -0.003001773 0.20906751 0.20267409 0.17002435 -0.10882342 0.1852631 -0.19866116 -0.30082723 -0.092699476 0.2086368 0.01029541 -0.27693707 0.08107138 0.24955012 -0.13493076 0.08576639 0.10581602 -0.20346975 -0.2120369 0.13144435 0.11908048 -0.09371286 0.21933715 -0.07682238 -0.26716596 -0.19316053 -0.1320162 -0.038848013 0.1918851 0.10016736 -0.02360379 0.1689774 -0.088557616 -0.097692125 -0.04722542 -0.03722878 -0.1808124 -0.12525882 -0.01918427 -0.16303387 -0.0730268 -0.014895808 0.011654721 -0.06183248 -0.015682563 0.06501646 -0.086135045 0.112722695 -0.20774204 0.16194858 -0.13018751 0.24247465 0.21653797 -0.016835103 -0.29672194 0.21193865 -0.11488014 0.06497638 0.14218192 0.008702374 0.031020295 0.08964737 -0.10901496 0.033408284 -0.16211155 0.20262527 -0.030408917 0.1505257 -0.15928714 0.09662549 0.11736792 -0.02659437 -0.18186398 0.27607128 0.11070331 0.12395628 0.07005416 -0.17116612 0.12198714 0.13358729 0.241109 0.03729043 -0.09777912 0.19218239 0.22648619 -0.090373464 -0.17870267 0.18344149 -0.1599803 0.14726512 -0.07376881 0.13953911 -0.2114932 -0.023442972 -0.105894595 -0.02148706 -0.07607222 0.103918985 0.13143405 0.010465427 0.017570041 8.791429e-05 -0.059427917 0.018923946 -0.073786594 -0.11195877 -0.044436168 0.0144555 -0.074183084 0.11126914 -0.11362529 -0.071123995 0.015375324 -0.19869627 0.024834359 -0.020813229 0.15321466 -0.03609763 -0.1873021 -0.021295115 0.11302682 -0.22553478 -0.16831347 0.16077638 0.16970725 -0.04378869 0.21953046 0.06922078 -0.1141965 -0.17045267 0.02642908 -0.0049293186 0.16718559 -0.082975596 0.035796124 0.20725012 0.16291039 0.08265303 -0.099199325 -0.11247991 -0.017723685 0.29210687 -0.3108586 -0.09460797 -0.051824935 -0.045054447 -0.117516406 0.05891632 0.24286191 0.007784683 0.023185818 -0.05855637 -0.057083093 -0.29164556 -0.096878216 0.005534988 -0.24727435 -0.18032768 0.16885005 0.22394961 0.2388222 0.10427536 -0.4030474 -0.030286364 0.2190082 -0.14408459 0.09687215 0.14311722 -0.27647036 -0.36394662 -0.11720929 0.07631053 0.19767216 -0.014682432 -0.016325478 0.05990074 0.17617935 -0.18112628 -0.030592898 0.2150083 -0.035021067 -0.023560598 0.24739736 0.045706082 -0.071693584 0.005795313 -0.14217076 -0.46166912 0.09615418 0.08511265 0.08877399 0.3859154 0.024772907 0.15851958 0.10640089 0.17115858 -0.1730036 -0.032316733 0.18458979 0.14043446 0.011071686 0.020216387 -0.103668764 0.11669655 -0.23237956 -0.16624232 -0.25577256 0.02121595 -0.07661046 0.07274869 0.079927176 -0.14596622 0.12643276 -0.14136791 0.05002705 -0.03963278 -0.12504621 -0.16599588 -0.050492622 -0.089561015 -0.16678955 0.13061002 0.24065384 0.20741794 0.012731366 -0.14144334 -0.14855677 0.19697088 -0.23930903 0.08544067 0.016201466 0.06378799 0.17241295 0.051796675 0.20297405 -0.06440452 -0.040308725 0.00996398 0.20435771 -0.00451067 0.1515361 0.115449764 0.2559087 -0.052169077 -0.01315016 -0.04170931 -0.047585387 0.044085756 0.08313127 -0.035066403 0.13863021 -0.014546477 0.04225637 -0.09296444 -0.057487644 -0.037066113 -0.024195267 0.079113066 0.10200431 0.19151358 0.051327217 -0.06492435 -0.0870445 -0.059953924 0.37096247 0.19346787 0.3261409 -0.45432106 -0.25586465 -0.11725226 -0.64142025 -0.20134756 -0.12504257 -0.5494605 -0.42992178 -0.16333212 -0.094000846 0.004036504 0.14617975 0.20667306 -0.08145922 0.24238205 0.11642753 -0.1538288 -0.14659107 -0.01059883 0.0090670725 0.17533883 0.12462701 -0.15611954 -0.10596644 0.060975965 0.047520664 0.2623688 -0.12483971 -0.1000352 -0.21092506 0.06847083 -0.08888659 0.26434404 -0.2729197 -0.108593695 -0.16218278 -0.4228909 -0.10476381 -0.14020553 0.2583484 -0.12216403 0.1905119 0.53031176 -0.08974202 0.17624965 0.23444186 0.1091031 -0.20931353 0.15178268 -0.1510601 0.09542296 0.065858126 0.3854211 0.38326937 -0.2912495 0.14265703 -0.21282572 -0.11868811 0.020610245 -0.1269025 -0.20396669 -0.21939996 0.023344228 -0.2935051 0.17504697 0.23388816 0.08093297 -0.23096423 0.121865295 -0.08884648 -0.22556141 -0.056260582 -0.10606919 0.24193825 0.16775852 0.030132663 -0.37935743 -0.1621665 -0.20109643 -0.09010646 0.40652382 0.1156678 0.5046611 -0.43244433 0.06593195 0.5475555 -0.116950594 -0.15020323 -0.387737 -0.6132668 -0.39435634 -0.0023960548 -0.48351207 -0.27280697 -0.32022867 0.10932256 -0.12209947 -0.16477461 0.08777502 0.21063046 0.18961929 -0.055525284 -0.5344504 -0.39972958 -0.10315728 0.111307986 0.43778887 -0.25241712 -0.44810748 -0.13598633 -0.35178813 -0.5091713 0.48877499 0.014196822 0.24125528 0.24965848 0.3288833 0.43141338 -0.41610637 0.33703426 -0.11609524 0.44862786 -0.03669851 0.118853256 0.0742221 -0.2641158 -0.02037923 -0.42180172 -0.3781078 0.31657663 0.063667424 -0.24136177 -0.28517655 0.16877225 0.73214936 0.14320105 0.21830744 0.41402063 0.3565442 0.50382745 0.4347225 0.1477522 -0.36113444 -0.039101724 -0.2878359 0.10300391 0.2347263 -0.20311056 0.22391436 -0.043876827 -0.33156234 -0.19547164 -0.35233286 0.43731838 0.09530285 0.09167254 0.36149368 0.0484407 -0.45142198 -0.34451857 -0.096797206 0.3584228 -0.1699457 -0.46833202 0.006173804 -0.15527196 0.62546575 0.0037037856 -0.06755192 -0.11308459 -0.14422302 0.2478321 0.23699631 0.1573417 -0.31812865 0.44456562 -0.06930147 0.25352287 -0.006603251 -1.2236998 -0.17100626 0.25272033 0.24525483 0.4985925 0.31782922 -0.7623231 -0.30211776 0.5360448 -0.25051978 0.20431982 0.2152958 0.106232084 0.22210199 0.018236479 0.37021133 0.14811996 -0.24050431 -0.014794766 -0.64971954 -0.2909548 -0.096765004 -0.086765975 0.3226584 -0.20555212 -0.06691487 0.54820096 -0.35610873 -0.4066668 -0.36024177 0.047210902 -0.1196251 -0.2727485 -0.14800732 0.8697026 -0.081500806 -0.19373782 0.0027307686 0.13537876 0.21990414 0.30403456 0.16883202 0.2375715 -0.35024646 0.19302507 -0.1972885 -0.28202263 -0.23730497 0.3191033 0.15066117 -0.2957049 -0.21002461 -0.3782821 0.25062078 0.26285243 -0.15015094 -0.057149086 -0.15514478 0.66419303 -0.16558065 -0.018554697 -0.24907705 0.3496012 0.09172771 -0.092577636 -0.5620547 0.7094034 -0.11812339 -0.30870762 0.4707537 -0.6913455 0.14744739 0.20877802 0.43834323 -0.1938747 -0.030002987 0.44522864 -0.44601664 -0.21050267 -0.013813512 0.2282556 -0.43236518 0.26810074 -1.0475221 -0.09822633 0.056363773 0.12739237 0.3433578 0.48846513 -0.0014780735 -0.7173635 -0.3377546 -0.058481295 -0.15135205 -0.39004755 0.5500719 -0.3604537 0.5169767 0.22514535 -0.30595127 -0.02054814 -0.106664434 -0.1866201 0.014990774 -0.26427355 -0.4832968 -0.2726654 -0.38789183 0.16485411 0.47235978 -0.35231122 0.2923581 -0.2070995 -0.5982662 0.18399478 -0.44183624 -0.24803025 0.3011496 -0.034973018 0.21748309 -0.42503196 0.53611845 0.4669717 -0.23242398 -0.20024265 -0.014286548 0.26397628 -0.33020687 -0.041455228 -0.3304996 -0.60662013 0.16902736 -0.2708762 0.29827902 0.7184297 0.41066766 0.34970823 0.27195677 0.19940916 -0.34453985 -0.27226996 -0.36565113 -0.3292723 -0.38822725 -0.1429116 -0.47911215 0.19964361 0.17349336 0.09216556 0.13044073 0.26280326 -0.12986895 -0.13231553 -0.23590961 0.21110111 -0.1004373 0.25162053 0.2277343 -0.0053073373 -0.12374078 0.54427314 -0.30648336 0.5585028 -0.18643223 0.20890422 -0.36795923 0.20351063 0.6051808 -0.12139753 -0.16188379 0.06508699 -0.20565307 -0.3413601 -0.2818232 -0.65986586 -0.338872 0.27274314 0.058454223 0.14783028 0.019265674 0.14272483 -0.115541816 0.011164524 -0.24342835 -0.17949823 -0.09187854 0.15433799 -0.5903463 0.22915846 0.33928666 -0.19408384 -0.36578923 0.15163694 0.011346346 0.19792126 0.22021629 0.4972706 -0.00015197537 0.37060034 0.14685075 -0.4502107 0.17527778 -0.455108 -0.6980817 -0.4284577 -0.29555285 -0.4174086 0.113006726 0.38833296 -0.39072436 -0.12603576 0.08179232 -0.15094587 0.11690582 0.26195353 -0.08323114 -0.1681704 -0.18894342 -0.37425432 0.08197565 0.30934653 -0.2442844 -0.24748932 0.08834522 0.15785976 -0.00027467054 0.1833447 0.23213226 -0.17393158 0.35708553 -0.2066766 0.45943382 -0.26458693 -0.090125985 0.23920819 0.077240564 -0.3123836 0.21997753 0.066751085 -0.04987221 -0.13967873 -0.07034193 -0.036261 0.14556728 0.22219478 0.0938178 0.27637342 0.3869439 -0.2881619 -0.017269079 0.39839292 0.042894498 0.37271503 0.22387548 0.26915854 0.39834797 0.49013212 0.2521592 -0.21619356 0.2113577 0.1803773 0.24247448 0.21192388 -0.22596239 0.5912847 -0.42128715 -0.18070361 0.35882467 -0.10819839 0.28488857 -0.60701126 -0.28920588 -0.16066426 0.13012592 -0.2695802 -0.41079265 0.28789854 0.28322074 -0.3723866 -0.10913883 0.30988792 -0.024978785 0.4364491 -0.34531587 0.114669524 0.13544595 -0.3635925 -0.17783959 -0.27963352 -0.2029509 -0.31293398 0.08171242 -0.57762706 0.098238595 -0.159373 -0.21232668 -0.13968764 -0.36356488 -0.081437744 -0.49153286 0.20276232 -0.1494661 0.037272144 0.3197348 -0.5061239 0.14100742 0.10295792 -0.18252493 0.249676 -0.2347221 -0.112585105 -0.29476613 -0.4479803 0.3930759 0.27667966 0.2500108 0.21099333 -0.07509427 0.24096982 0.3624716 0.052287288 -0.21862325 0.26150256 0.25590858 0.36204952 0.044489555 -0.38530207 0.012135472 0.058455158 -0.29804522 -0.74049246 0.31148937 0.4069657 0.33703265 0.070795536 0.13906223 0.236185 0.43500474 -0.27450565 -0.3851767 -0.019569492 -0.17108205 -0.3623064 -0.06462688 0.08870538 -0.37186706 -0.20537129 -0.34380895 0.090953134 0.3017728 0.27045643 -0.30653042 0.38324684 -0.121551104 0.5835866 0.2974086 0.27739477 -0.12233143 -0.39892548 0.09634719 -0.5891584 0.13714461 -0.0026676566 0.01265437 -0.1866326 0.25909728 -0.6528773 -0.31336057 0.15443367 -0.22823147 -0.10667829 0.14453703 -0.19255254 0.22319596 0.20203346 0.17964923 0.29948625 0.27322698 0.10479975 -0.58376366 0.22130384 -0.3338875 0.013477548 0.1448238 0.020386057 -0.28500742 -0.15801847 0.3687956 0.030480243 0.23262653 0.06823673 0.20790622 -0.5824957 -0.30255893 -0.030898292 -0.34313318 0.17874369 -0.114457265 0.029660178 0.06199922 -0.1760893 0.21390261 -0.06846895 0.4139812 -0.43188003 0.3411246 0.33097693 0.24914114 0.01129872 0.3186441 -0.2205385 -0.41649947 -0.0060297363 -0.031426962 -0.0012823993 -0.0055258144 0.018899435 -0.06498729 -0.019193605 0.098708965 0.23177864 -0.1275025 0.18678078 -0.18161513 0.34831265 0.24643885 0.47569415 0.17368655 0.19467008 0.0021885089 -0.19399048 -0.36242077 0.22323216 0.18253285 0.023613049 -0.41228 0.03992573 0.08571815 0.58082926 0.29286146 -0.22478013 0.13122866 -0.19717605 0.22273482 -0.06514869 -0.19560008 0.29748353 0.15518217 0.124414235 0.2933036 0.35984594 0.26841053 -0.34979495 0.17741852 0.09312945 0.25522658 -0.11898511 -0.3172766 -0.137976 -0.3444114 0.14039555 0.104690544 0.14826098 0.5355921 0.058560796 -0.36137202 -0.21209338 0.0807852 0.24146596 -0.16409028 -0.07512432 0.029450092 0.24669102 -0.22610493 0.10678684 0.18707451 0.19915365 0.17397743 -0.4019029 -0.32084322 -0.030497003 -0.3165486 -0.30817923 -0.090228446 -0.35833928 0.34321016 0.007708132 -0.028964752 -0.21004607 -0.58029276 -0.09478231 0.35078046 0.10263718 -0.093038574 -0.18627724 -0.15576851 0.29266348 0.20153828 0.3610655 0.1263847 0.17410965 -0.04286016 0.018601067 0.17096402 0.14185852 -0.324646 -0.18229327 -0.3517857 -0.18948229 -0.32883173 0.13501592 0.26024652 0.01859443 -0.46771646 0.2343468 -0.07693545 0.023830585 0.32893297 -0.16198976 0.3884513 -0.11116396 0.013653785 -0.036786262 0.25007936 -0.24578923 -0.07208352 0.026920523 0.22765896 0.4696682 0.6140558 -0.106351875 0.23198356 0.035340704 -0.10825745 -0.066664025 0.015989924 0.27833116 0.2468407 0.4228745 0.2996153 -0.11530687 0.30009115 -0.24980024 -0.1110175 0.17213698 -0.3191395 -0.36303452 0.13484044 -0.10144987 -0.15168284 0.20541206 0.23407197 -0.42932573 0.44702968 -0.36747828 -0.071502484 -0.092077 0.19568773 -0.027318984 -0.09358612 0.078852504 0.053588834 0.48945856 0.41114023 0.2635833 0.06600289 0.18763892 -0.3596642 -0.04427904 -0.24636632 0.15779752 0.20905156 -0.13921605 0.29598114 -0.17515479 0.33562294 0.0043657213 0.033383455 -0.22196662 -0.28525984 -0.30088884 0.18053788 0.048743565 -0.36987767 -0.20830463 -0.097801134 0.25432625 0.2675122 -0.18772352 0.2176072 0.0064323777 -0.27104375 0.08011811 -0.22052255 0.094805226 0.022716157 -0.21436098 0.20431922 0.3785703 0.22980954 -0.07420024 0.18858 -0.1146523 -0.26414993 0.12648113 -0.29386657 0.2855375 0.367399 -0.037384495 -0.019618738 -0.09504947 -0.5817468 0.24483132 0.085108064 0.13438243 0.011839481 0.074700825 0.28473076 -0.31499958 0.1173886 -0.14493594 0.14605612 -0.14077263 -0.26919395 0.042249322 -0.12536535 -0.015296033 0.30152023 -0.04192984 -0.32084012 0.064872675 -0.258446 0.20744678 0.29156548 0.29465118 -0.056597948 0.15975094 -0.08077592 0.29732332 -0.19653638 0.089109756 0.24098979 0.12849203 0.11635387 -0.18982732 0.0182165 -0.035684865 -0.19581711 -0.115690984 -0.10615194 -0.36355257 0.34718335 0.09821151 0.12076316 0.35854253 -0.14391209 -0.16635825 -0.0011995704 -0.09707905 0.1180022 0.33243647 0.53171533 -0.20176853 0.24656706 0.08828243 0.49323466 0.2168305 0.16302562 -0.29403898 -0.2568469 -1.1083959 -0.864464 -0.070124164 0.13584088 0.1048005 -0.023371434 -0.16323693 -0.16402446 0.24271673 0.050148953 0.44701573 0.08921362 0.3548519 -0.0076264758 -0.14827654 0.0874809 0.17763846 0.35358796 -0.057977606 -0.2555316 -0.0040016887 0.3373714 0.001805557 0.22010289 -0.27486196 -0.05218651 -0.49769276 -0.1972482 0.023662794 -0.013837119 0.09114743 0.19387294 0.22998129 -0.021810047 0.28400284 -0.18503964 -0.08269608 -0.26855752 0.058566988 -0.26540717 0.021433156 -0.08593328 0.11940623 0.23575161 0.24592972 0.18192916 0.23200794 0.14401628 -0.24804299 0.10414911 -0.36042517 0.14829515 0.10036069 0.35789678 0.14058399 0.033701144 -0.2071281 -0.17240965 -0.060991574 -0.03200346 0.10858518 -0.06535022 0.6498951 -0.33361045 0.1930573 -0.014596732 -0.23968351 -0.05907429 0.18560825 -0.036403824 0.11704353 -0.25896126 0.16964924 -0.19082999 -0.03634061 -0.12013666 -0.08153426 0.108034514 -0.23739706 -0.31787536 0.0840026 -0.22092508 -0.28089482 -0.03950605 -0.10339614 0.18193112 -0.13849182 -0.009036272 0.30270934 -0.0955367 -0.073387414 -0.27831587 0.32308793 0.19702686 -0.10595307 0.102583095 0.21256162 0.62394375 0.22024232 0.33567432 -0.14909504 -0.11236467 -0.23121123 -0.4009297 0.18136013 0.02142197 0.08776759 -0.018315878 -0.3404344 0.039207995 -0.12471028 -0.15384693 0.12699072 0.18088159 0.015152194 -0.041757084 -0.42391434 -0.23205844 0.42042133 -0.011111671 -0.4580184 -0.09393332 0.07407873 -0.1188468 -0.29923123 0.0789868 -0.11089597 -0.25447488 -0.16145861 0.08133492 -0.26006472 -0.1035755 -0.07374918 -0.017309658 -0.25712818 0.22954574 0.19326612 0.6352042 0.31755066 -0.109961025 -0.2438532 0.22894281 -0.05602305 -0.26742175 -0.35168496 -0.15709923 -0.07648474 -0.13100642 0.27449992 0.4690438 0.092801586 0.12411629 -0.11530349 0.08415499 -0.17421219 0.1202448 -0.2609776 -0.24866648 0.02278852 0.18258443 0.076490276 -0.020891352 -0.039879445 -0.057326052 0.20168976 -0.09630954 -0.26033637 -0.16595487 0.31525663 0.068564326 0.05609449 0.07346611 -0.011367105 0.111856624 0.18128227 -0.1489924 0.057373323 -0.09015245 0.14230087 -0.096305214 0.018360516 -0.35389587 -0.29093322 0.09143396 0.16423772 -0.035990305 0.11792178 0.14283597 -0.09635363 0.0702514 0.07042062 -0.1326974 -0.11166709 0.070460044 1.1082293 0.057094846 -0.30031255 -0.061015572 0.19282247 0.8601488 -0.23347314 -0.22619706 0.027132206 0.09461843 0.08335463 0.099397846 -0.07964996 -0.12056063 -0.1967465 -0.19664729 -0.23164125 -0.13596015 0.42567465 0.5517561 0.56787896 0.061399683 0.10750872 0.30202946 -0.10157077 0.03982547 -0.1398236 -0.13347317 -0.07997136 0.23047224 0.3783148 0.051885273 0.17433374 0.23337075 -0.29649192 -0.37302262 0.20056273 0.119677454 -0.18612564 -0.14151813 0.21891333 0.13970983 0.110500224 -0.23212026 -0.14260077 -0.11982171 0.0970642 0.16161852 0.20734482 0.08172502 -0.04682779 -0.13100322 -0.10660712 0.07621021 0.16318655 -0.39421535 -0.23505756 0.18687066 0.18186806 0.11104892 -0.010225776 -0.06535571 0.18888079 0.40580583 0.18876329 -0.14035615 -0.19993955 -0.13345708 -0.031110568 -0.055363175 -0.009074933 -0.10953908 -0.0722934 0.23876196 0.15392019 0.33172837 0.090960085 -0.3909152 0.025133403 -0.5930127 0.35493004 0.06521826 -0.07412421 -0.026729131 0.06297678 -0.17641409 -0.1350766 -0.29675707 -0.14250512 -0.34857845 -0.02777245 -0.0033371544 -0.16445711 -0.294751 -0.021287134 0.17941572 -0.18456864 0.052037373 -0.0041317944 -0.14891325 -0.18636183 0.21579634 0.0039203214 0.09964318 -0.14815828 -0.32744953 0.06998654 -0.0028347538 0.011574542 -0.2357567 0.2201236 -0.43411022 0.038825482 0.21737722 0.18507506 0.041993514 -0.20386326 0.044320013 -0.09701589 0.38525382 0.40283173 0.124950714 -0.09162757 0.07128781 -0.24288806 -0.096936874 -0.20147868 -0.26037633 0.1291808 0.070964895 0.15080272 -0.12300408 0.2730634 0.09879934 0.42544383 0.34443912 0.27935532 0.21157351 -0.024125697 0.20748278 -0.2284984 0.044322725 0.0055708336 -0.05323643 0.29399964 -0.037496798 0.153958 0.17976083 -0.14662054 -0.190092 -0.014617068 -0.04399924 -0.07884606 -0.080771886 0.083855785 0.22084042 0.112723276 0.18599086 -0.057518337 -0.18738003 -0.06156689 0.049206197 0.29262453 0.21239425 -0.05446568 -0.18598707 -0.048324518 -0.19682334 -0.008985543 0.17202507 -0.09767958 -0.26297304 -0.03619196 0.0640283 -0.0590125 -0.051445596 0.044026617 -0.087902084 0.064061485 0.2351926 0.18700366 -0.094955176 0.029662395 -0.018897766 -0.09450189 0.22341603 0.05110666 -0.1538386 0.32256338 0.10830367 0.29212108 -0.16976884 -0.018799478 -0.13976176 -0.55865943 -0.33108434 -0.10072817 -0.02630648 0.0010801051 0.17750251 -0.0025693127 -0.0056182826 0.09176224 0.13289817 -0.21533877 -0.14230436 -0.0053891507 -0.09433809 0.0089808665 -0.27458027 -0.11455069 -0.05171785 -0.07909542 0.10303606 0.11954917 -0.04501618 -0.34944066 0.05757624 0.098972976 -0.30105606 0.07904293 -0.056939844 -0.39342862 0.004524089 -0.0040426394 -0.08627816 0.1154934 0.06809356 -0.03871848 -0.008309948 -0.16728267 -0.09033844 -0.3339511 0.11437132 0.25402468 -0.041596826 -0.15948616 0.60195833 -0.0016368687 -0.23747587 -0.34072176 -0.09106784 0.24544832 0.40928605 -0.008671869 0.19769901 0.13017246 -0.09956821 -0.06987523 -0.31582895 -0.34730482 -0.14703748 0.2078105 -0.05310173 -0.17738536 0.14358142 0.0883445 0.1909606 -0.14146048 0.13446401 0.07003838 -0.018410169 0.2351464 -0.1174264 -0.40118596 -0.05093418 0.076982215 -0.17113616 -0.17030004 0.08458452 0.12093894 0.33968467 0.05392322 -0.03539864 -0.013920164 -0.16617288 -0.05457933 0.19245197 -0.062356647 0.16235338 0.005437256 -0.02657496 -0.18094066 -0.27112138 0.051628344 -0.3289611 -0.17849489 -0.20878084 0.16460828 -0.2204837 -0.083384395 0.121150225 -0.17099123 -0.32059735 -0.36204922 0.033486754 -0.230475 0.11340317 -0.3123172 0.1768764 -0.25935352 0.16114806 0.010216255 -0.10989916 -0.2780141 0.10849717 -0.19927022 -0.36636174 8.962637e-05 0.022317778 -0.11669951 -0.04434767 -0.15906952 -0.2121514 -0.24233444 0.14692536 0.14808276 0.02314578 0.13696884 0.033307593 0.1850921 0.049534205 -0.012556066 0.18011756 -0.035200454 0.032244664 0.25787887 0.10402286 0.25931734 0.04428232 0.21136187 -0.03578192 -0.2127279 0.13237199 -0.26005083 -0.050743014 0.31783047 0.2010579 0.13214657 -0.17649719 -0.06730037 -0.020353734 -0.12511422 -0.041488674 -0.091393866 0.20282735 0.25192675 -0.14643945 -0.20886594 0.15359984 -0.26358363 0.14830849 0.08710215 0.016892163 -0.27391005 0.060104486 -0.18440284 -0.17685543 -0.14414175 0.0667307 0.21655051 0.23279224 0.112392895 0.3885892 -0.09955312 -0.08641533 -0.08653484 -0.063561134 0.09011397 -0.12679216 -0.28470933 -0.22197458 -0.28367805 -0.22060104 -0.14914913 0.08469729 0.07647231 -0.08593105 0.08453436 -0.18598795 0.12593095 -0.27388334 -0.108008526 -0.2060408 -0.2057912 -0.26630315 0.10077713 -0.096800216 -0.054140236 0.27213416 -0.16987132 0.2380515 0.23398006 -0.07961875 0.085151434 0.33909246 0.1854492 -0.0671322 -0.42909035 0.13763182 0.471092 0.11118704 -0.08897328 0.024841867 -0.078012 -0.2126624 -0.31148902 -0.048655767 0.34039056 -0.3425545 0.30212447 -0.2714417 -0.23869935 -0.11806147 0.12644918 0.1120871 0.021579413 -0.21176279 0.11272711 -0.31112865 0.02270296 -0.21100621 0.05005964 -0.26817703 0.0016644254 0.1910728 -0.31859574 -0.041669443 -0.29634583 -0.28179243 -0.072302505 0.011451016 0.14378849 -0.11627543 0.115222715 0.065867215 0.024704881 0.19403082 0.3009576 -0.046684332 -0.2113596 -0.10907053 -0.10434895 -0.29219913 -0.19679926 0.32853827 0.25601587 -0.09769341 0.17263228 -0.04737979 -0.03626333 -0.20728122 -0.14584295 -0.21354805 -0.22428206 0.11571292 0.27506742 0.3874206 0.16639039 -0.04911676 -0.09601173 -0.32845908 0.06570895 -0.17453626 -0.3654257 -0.08350491 0.29548475 -0.012649139 -0.33518788 0.21148463 0.27704343 0.418338 0.047527187 0.11614669 -0.13502942 -0.26194608 -0.18989119 -0.17926061 0.05356178 -0.25124913 -0.22033644 0.13273312 -0.18583295 0.112122834 -0.037897054 0.1288727 -0.101816855 0.21968636 0.19060417 0.20602658 0.20454639 0.36388117 0.1771392 0.07566746 -0.12629071 -0.0172829 -0.079403244 0.20696619 0.2553239 0.000715134 0.3309385 0.22236364 -0.2178225 -0.21612458 -0.07429438 0.29210132 -0.14386897 0.15006611 0.17664278 0.04926109 -0.015383994 0.3969338 -0.08857683 -0.088647895 -0.17296726 0.318007 -0.23087896 -0.24763931 -0.1806199 -0.107345976 -0.074770495 -0.44397485 -0.18337129 -0.0122751575 0.0094180405 0.5875411 0.52109426 0.15226802 0.32606697 0.38912302 -0.17140047 -0.0760285 -0.040105924 0.09169114 0.09447379 0.21214838 0.11463508 -0.24946244 -0.25717875 -0.187709 -0.074401446 0.14428921 0.27049088 -0.29121044 -0.07468263 -0.46357152 -0.12325053 0.31441033 0.10287525 -0.1678627 -0.1518586 -0.16423814 -0.2059416 -0.22396769 0.12680991 0.21956831 -0.2979817 0.15006933 0.05385649 0.16488642 -0.3060184 -0.10762951 0.12744614 0.28317854 0.25282454 0.013938396 0.21330056 0.21099958 0.03430766 0.09666181 0.23908561 0.26881486 0.3319914 -0.08235823 0.34285247 0.31043005 -0.49455678 0.35318258 0.42413315 -0.104052514 0.15345784 0.5337101 -0.12199547 0.12948322 -0.475616 0.3328835 -0.111786425 -0.0670823 0.10653398 -0.007815372 0.5062616 0.3620823 -0.21341085 -0.12829614 0.3220879 -0.08615681 -0.3266062 -0.5253704 0.35762286 0.48240513 -0.35163385 -0.20656641 -0.32988983 -0.65925586 -0.46062124 -0.313681 0.21362863 -0.007950708 0.17537957 0.16659778 -0.2943187 -0.11415314 -0.21707408 0.09988547 0.20076957 0.3581523 0.48418736 -0.106973 0.30604857 0.21718885 0.28685236 0.18345627 0.18121135 0.0074698213 -0.2405632 -0.13226286 0.015719637 0.12636887 0.39447471 0.061471835 0.123262495 0.3150639 -0.29492778 0.20739721 0.0014266509 -0.031463172 -0.44335648 -0.6511772 0.16707523 0.35640657 0.7317954 -0.35736018 0.12512508 -0.3020034 -0.24056251 -0.11079372 -0.051842045 0.10014203 -0.3441781 -0.11099644 -0.26943082 0.16818368 -0.47359666 -0.069058776 -0.04267503 -0.48142952 0.05134672 0.0883067 -0.24387385 0.09464743 0.11395934 -0.047183964 0.22637972 0.08334645 -0.088790365 -0.34861106 -0.21839483 0.2525469 0.18403774 -0.09464773 -0.5152248 0.095013626 -0.971016 -0.3814653 0.07804018 0.13308106 -0.31969103 -0.1845666 0.28176507 -0.009910709 -0.27377725 0.30124205 0.27956632 0.09646892 -0.20020504 -0.25842163 0.09775791 0.6349971 0.027085256 0.38709983 0.35983813 0.1379342 0.063840024 -0.12299236 0.8140882 0.4145148 -0.3442124 0.034034003 0.3047199 -0.48082322 -0.22441265 0.014380967 -0.1552517 0.14052679 -0.31032845 0.18183313 -0.06745357 -0.35939166 0.05753959 -0.2665817 0.35292843 0.089357354 -0.24788058 0.04221138 0.10192989 0.48718327 -0.20616281 0.8392028 -0.27667582 -0.32834435 -0.4110026 0.10577675 0.21928294 -0.27167872 -0.12733324 0.034877993 -0.27258363 0.4954233 0.11503107 -0.33894268 -0.24823727 0.13830438 0.40876025 0.8819192 0.37301853 -0.15130931 0.30231112 -0.28533137 0.40880808 0.07467489 0.60584867 0.34803936 -0.25064743 0.33069134 0.23692688 -0.25703415 -0.108178586 0.27803594 -0.4512978 -0.053169023 0.29530862 0.37566906 -0.36618882 -0.12042027 0.71368515 -0.14624867 -0.45059168 0.38669217 0.16176929 0.2659016 -0.32690552 0.0741042 -0.07216673 0.117212 -0.45455357 0.17148866 0.15702856 -0.10988577 -0.5763073 -0.26810807 -0.03073248 0.27108383 0.4382203 0.049567547 0.23273794 0.35062322 -0.4009318 -0.056103487 -0.097430296 0.19509257 0.25100997 0.09937646 -0.21621142 -0.5726498 -0.32598943 -0.24636589 -0.052164808 -0.40937778 -0.3893809 -0.421788 -0.3789769 0.3991409 0.39573976 0.041699633 0.2106935 -0.33519027 -0.043044146 -0.0032930202 -0.07700614 0.42247683 -0.24862091 0.09642752 0.013492345 0.18920705 0.014793851 0.36644185 -0.36237827 -0.35978818 0.5789461 0.23503128 0.09606033 0.3094518 0.57865685 0.223501 -0.14745364 0.17886864 0.3209843 0.16826852 0.025623383 0.3471318 0.013213083 0.4615493 -0.24319233 -0.14838976 -0.041528035 0.40886778 0.3273427 0.15233117 -0.03130999 -0.050477892 0.3004094 -0.13825771 -0.025089884 -0.2629133 -0.077345155 -0.17910942 -0.52058345 -0.52847403 -0.46496135 -0.07745397 -0.8160751 0.053347547 -0.08848455 -0.28387752 0.45083895 -0.051371783 0.34464785 -0.13066243 -0.24193034 0.24580586 0.16606468 -0.007014438 0.2960292 0.46655232 0.21539445 -0.2824074 0.07631744 -0.19648674 0.0018184417 -0.054461792 -0.15445517 -0.18596241 0.16407254 0.11268513 0.3754755 0.17433527 0.10740074 -0.12768136 0.3769191 -0.2757002 -0.32897636 0.2603534 -0.15114623 0.34948358 0.07311248 0.00044885153 -0.11636162 0.02556333 0.100194946 -0.19223021 -0.11114539 0.118289575 0.37503618 -0.2633226 0.24562745 -0.18869837 0.5721221 0.31890616 0.17422917 -0.25706428 0.029137813 0.13317536 -0.03847732 0.1097541 -0.49741352 0.49770465 0.2796206 0.24520041 -0.0760996 -0.37019217 0.24616979 0.27178955 0.018509394 0.24626389 0.04311694 0.066051885 0.23027596 0.1960542 0.06423336 0.28772196 -0.14614518 -0.20367111 -0.018875415 -0.04635601 0.036712296 0.28457838 0.3092723 -0.42242825 0.23488072 0.060279913 0.2380746 -0.40066752 0.1133101 -0.31277645 -0.45792925 -0.05971946 -0.31554976 0.36031908 -0.19317895 0.430018 -0.054973364 -0.30674028 0.09629657 0.08376617 -0.014345531 0.06765696 0.010921601 -0.017743846 -0.028423004 -0.2618432 -0.29222092 0.13807563 -0.28809768 -0.06560251 -0.25394645 -0.43640578 -0.12601353 0.08508872 -0.17022951 0.16547003 -0.25562903 -0.20184298 -0.3919515 0.020963622 -0.03499191 -0.26010823 -0.056985322 -0.030702552 0.23469949 0.005472034 -0.4638301 -0.42685738 -0.060925934 -0.06983837 0.12857372 0.0354391 0.11014043 -0.24299169 0.42632872 -0.09914613 -0.28446358 0.3232796 0.22684044 -0.028335672 0.26204157 -0.09805741 0.351241 0.21770826 -0.15595804 0.084348515 0.18319993 -0.6530696 0.0033723507 -0.09844998 0.29242367 0.21877573 -0.37752646 0.21635053 0.16335985 0.44058424 0.44740292 0.1670642 0.29382104 -0.16468398 -0.33443758 -0.21925938 -0.3333609 0.48635834 -0.07622282 -0.32624647 -0.032857757 -0.20116907 -0.09518176 -0.12221984 0.1730659 0.37905592 -0.04811807 0.26467016 -0.324813 -0.27629083 0.24712138 0.13512607 0.050090995 0.2769505 0.08782288 -0.13584909 -0.35467425 0.070413664 0.19116504 0.2379086 -0.24884696 0.4166472 0.27651176 0.081561886 0.38558543 -0.06974013 0.011385255 0.22428484 0.35454127 0.31018505 0.5375631 -0.016706107 0.080257125 0.16637802 -0.074617885 -0.016668111 -0.24542795 -0.13695793 -0.226299 -0.16880889 0.3014559 -0.09039475 0.039316285 0.3700884 -0.11389859 -0.62185854 0.4193029 0.5945748 -0.07005207 -0.36033815 0.44454905 -0.14039621 0.18242978 -0.26147822 0.12630042 0.04542725 0.020124726 0.12061351 -0.5180353 0.33465412 0.24979259 0.13589329 0.06423762 0.16876552 -0.0532233 0.30080345 -0.18575357 -0.36881185 -0.33438477 0.06815357 -0.17484494 0.14888662 0.16327612 0.414936 -0.3367527 -0.11091465 -0.056595996 -0.22900368 -0.30635044 0.073057845 -0.1287589 0.1888705 0.26028052 -0.048845597 0.2342372 0.0078104455 0.17853612 -0.33189225 0.051575396 0.36174336 0.43399942 0.60299206 -0.51997983 -0.20613371 -0.27073985 0.59089273 0.04685557 0.4960056 0.16036908 0.24187182 0.39310578 -0.20819129 0.23245902 -0.38671917 -0.18464842 -0.024394274 -0.12807402 0.15934592 -0.13023245 -0.030586448 -0.08388926 -0.3250792 -0.35199478 0.4264005 0.4017585 0.26609457 -0.006461709 0.2628537 -0.029421525 -0.20281808 -0.029512485 0.04978196 -0.18195567 0.32351404 0.12993795 -0.23929372 0.12820199 -0.30149502 0.22265399 -0.22596522 -0.29288256 0.20880994 0.27807477 0.47228402 -0.08714457 -0.059657197 0.21110375 0.20930596 -0.17054246 0.43041727 -0.11943497 0.025075998 -0.40921462 -0.13982323 -0.08209156 0.40047267 -0.16221882 -0.08025931 -0.07543546 -0.35476112 -0.024758874 0.12715727 0.06387851 -0.07471355 0.21910228 0.09080359 0.33156773 -0.33904043 0.2268651 0.34799588 0.4427751 0.12631428 0.14864749 -0.005261539 -0.17377153 -0.20561674 0.10662784 0.004388462 0.084423825 0.19088215 -0.2557862 -0.0027009293 -0.3453744 -0.14622541 0.28087592 0.09537201 -0.32632586 0.3165338 -0.18973327 0.020550378 0.19791108 0.31777546 0.34742054 -0.23278895 -0.26721084 0.07669722 -0.10345638 0.35883984 -0.45456946 0.14130254 0.3991259 0.124332786 0.08542444 0.29698288 -0.27070194 -0.062359348 0.042607743 0.05362661 0.07063235 -0.17279889 -0.28898996 0.4144496 -0.12688449 0.7016451 0.059329294 -0.32378685 0.36061922 0.54426295 0.37962878 -0.38751498 -0.11511958 -0.31543842 0.37544262 -0.13130888 -0.08011321 0.045790583 -0.18622069 -0.40740025 -0.24194647 -0.184752 0.18358973 -0.15620066 0.21399088 0.6057477 -0.25571167 -0.2124901 -0.016827285 0.106080264 -0.46377742 -0.35821557 0.08522519 0.03069391 -0.4309945 0.039296914 0.42730036 -0.072246335 -0.44366723 -0.29232442 0.26273477 -0.07594347 -0.36747873 -0.27563554 -0.14695181 0.30758873 0.152137 0.33718956 0.34412003 0.100603834 -0.48044524 -0.25114247 0.3992299 -0.031902887 0.07033791 -0.042743884 -0.026414778 -0.12952101 -0.32545397 0.21476862 0.23816586 -0.09136765 0.17814414 0.07215362 -0.17490625 -0.20596436 0.24073105 -0.14919208 0.281407 0.48388654 0.12364155 -0.08437997 -0.18855438 -0.251691 -0.15982781 -0.033821348 -0.27427366 -0.38837078 0.14960344 0.21910591 0.055845216 0.10828042 -0.12845862 -0.1884473 0.026785748 -0.11807257 0.05347432 0.12288627 0.15969442 -0.25945824 -0.46872625 -0.40929595 -0.09376605 0.12278238 0.30328956 0.10835527 -0.16546643 0.061479874 0.09619087 -0.26686254 0.27802026 0.042385265 -0.08592517 0.027451627 -0.13731726 -0.29375404 -0.14336543 0.2027668 -0.043395523 -0.5964931 -0.49270013 0.16538401 0.218776 0.37333468 -0.16484194 0.3071653 0.079218104 0.065034986 0.022329196 0.107956246 -0.12098005 -0.07875628 -0.27223435 -0.37173277 -0.13938503 0.2413648 0.3268737 0.26503718 -0.16099396 -0.009489623 -0.2216812 0.031273402 0.061685566 0.107891254 0.117545806 0.019705992 -0.04445197 0.10242209 0.4559945 0.27670127 -0.16063657 -0.21785554 -0.031177111 0.10022579 0.55204797 0.25170422 0.11561253 -0.06277404 -0.099119976 -0.28787002 0.29053226 0.23553447 0.02310602 -0.01664928 -0.092344075 -0.010461957 -0.20666492 -0.08927934 0.047357492 -0.09824298 0.106260315 0.07301655 0.15573147 0.034321472 0.22073542 0.21054435 -0.31900612 0.0738765 -0.009627645 -0.19702983 0.07380014 0.19108872 -0.087706245 0.14614703 -0.245537 0.04998443 -0.07338997 -0.058387667 -0.15677635 -0.13834111 0.07610486 -0.12954003 0.106581315 -0.018003501 0.07051374 -0.18763193 -0.21852 -0.24484925 0.11374761 0.22650975 -0.13995837 -0.14691903 -0.023949854 0.17537434 0.14663832 0.13862438 0.277607 0.3271469 0.123821795 -0.30243012 -0.23930013 -0.15491205 -0.20896769 -0.28915906 -0.16115718 0.1788664 0.21068694 0.066415995 0.2599297 -0.09445825 0.06721906 0.11707885 0.1728353 0.04252515 -0.26950207 -0.42574355 -0.10545057 0.13236013 0.0963544 0.15427855 -0.17927201 0.26381326 -0.16176704 0.08428333 0.10718925 -0.17841415 -0.16001175 -0.08791092 0.22216657 0.29690883 0.055734497 -0.054360274 0.1247172 0.18053246 0.29795104 -0.3088443 -0.056411017 -0.27928245 -0.118548505 0.22752398 -0.023108048 0.2979359 0.15257438 0.20464584 -0.045996312 -0.04410215 -0.11387088 -0.11427872 0.13041565 0.06387271 0.18332766 0.103629544 0.2191191 0.049895845 0.22095433 0.13061191 0.058757953 0.28136185 0.012752351 -0.2975265 0.1125411 0.0772481 -0.32828566 -0.19171749 0.073594704 0.08354891 -0.2483311 0.05902258 0.23262626 0.097456776 -0.039309345 -0.2412138 -0.14336388 -0.10599177 -0.45140842 0.2212829 0.2550986 0.15625104 0.13509724 0.036018565 -0.28689438 -0.07544698 -0.07439041 0.2752057 0.010594684 -0.08858545 -0.15173087 0.08842993 0.004367121 0.24899633 0.091656454 0.052132383 0.26855212 -0.1131935 0.11051176 0.08089429 -0.22529231 0.16225225 -0.08537343 0.20987949 -0.67443234 -0.24978898 -0.20539461 -0.29955986 -0.4642005 -0.100366354 -0.25539425 -0.024513725 0.10037231 -0.24179448 0.23220237 -0.08830291 -0.3213487 -0.30961922 -0.38952225 0.004041889 0.009564077 0.3835957 0.16038187 -0.026893549 0.08281551 -0.11694138 -0.036219176 0.16948193 -0.037374377 0.10461768 0.19923674 0.06440696 -0.00515407 -0.03847801 0.075540744 -0.22061357 0.02237032 -0.17246102 -0.116495885 0.120609984 0.20063761 0.1408377 0.3262222 0.090551294 0.3284459 0.13007635 -0.2374074 0.07169788 0.10737458 0.123135865 0.00030029373 0.19907539 -0.19936752 0.08612282 0.052434694 -0.14678094 0.056372046 0.028330363 0.074163646 0.41426402 0.12027824 -0.019306045 0.2647688 0.13148588 0.123896524 -0.21159114 0.13649194 0.07010564 0.1704933 -0.006237172 0.08919367 0.2079399 -0.10773036 0.053866334 0.07795106 0.0844935 -0.08054936 0.011382566 -0.19991803 0.23434238 -0.05654039 -0.12790336 -0.052712593 0.14213711 -0.3535873 -0.0891728 0.24151416 -0.073116586 -0.36689582 0.35600215 -0.11172514 -0.14261733 0.19655319 0.29316932 -0.010187741 -0.24584211 -0.11839018 -0.07045426 0.17338827 -0.2924491 0.12315077 -0.2556175 0.31414998 0.3258872 -0.13829982 -0.21699919 0.020184737 -0.3944482 -0.16914508 0.16214457 -0.05405143 0.2851034 0.24140917 0.000347074 -0.0495349 -0.22403717 -0.07305441 -0.16848932 0.23059975 0.19307214 0.16395271 -0.21993347 -0.11392631 0.2607229 0.20789866 -0.15929031 -0.024897687 -0.09154587 0.033978246 0.15654631 0.043750264 0.26795262 0.17179137 -0.07705087 0.16106057 -0.20080267 -0.06919425 0.13696913 0.19132537 -0.08835813 -0.23339166 -0.105250046 -0.07173151 0.03142453 -0.03862223 -0.17246686 -0.18134826 0.25129676 0.15143721 -0.39066136 -0.23227416 0.31958342 -0.14088292 -0.104619525 2.5837167e-05 0.03759728 -0.2061685 -0.045691844 0.124906875 -0.055835176 0.107854165 -0.05989571 -0.16729864 0.112996355 -0.14116202 -0.013966488 -0.30497935 0.065484986 -0.03717947 0.12428639 0.040831964 -0.038139187 0.2014371 0.12513642 0.19052583 0.05903915 -0.014123004 -0.19259885 -0.051771127 0.14795797 -0.13785206 0.32445592 0.26415586 -0.19270366 -0.10551036 0.07984545 -0.37677595 -0.29445308 -0.12689699 0.1788326 0.26813212 0.13766609 -0.102342285 -0.009604961 0.030921401 0.41976553 0.34377104 0.05490924 -0.12520246 0.12829654 -0.35050654 -0.07787455 -0.027567979 -0.19780615 -0.021688737 -0.35882035 -0.361631 0.025487155 -0.113210104 0.07709059 0.25371447 0.305407 0.20060472 -0.03378685 -0.17105828 -0.39768797 -0.054764513 -0.029232856 -0.018301513 0.053062193 0.21877022 0.3734977 0.06391324 0.23657285 0.18848993 0.25579 0.14928398 0.15291949 0.29211503 0.15945299 -0.15186733 0.19318387 0.21130358 0.057977546 -0.04717085 -0.13212869 0.10263839 -0.23393759 0.24736223 0.0057222866 0.16122821 -0.06706867 -0.033820976 -0.06587839 0.0958078 0.10682147 0.10550884 -0.21288382 -0.102869034 0.019294767 0.19018878 0.0072623915 0.19772004 0.11041028 0.081967026 0.3911739 -0.25893566 0.17227758 -0.08441324 0.08528168 0.37671432 0.48794913 0.4342754 -0.0015430017 0.06973604 -0.0030378536 -0.21216689 0.20811692 0.38104227 0.5027969 0.2669666 0.24584611 0.32354474 0.2989122 -0.16559196 0.05698728 -0.003392913 0.39229318 0.27502227 0.10139894 0.13472292 -0.057578932 0.21106961 -0.3598565 -0.03601887 -0.18154427 0.15037987 -0.18268384 0.18627484 -0.105197124 0.0745645 -0.18493316 -0.19020648 -0.27764255 -0.03463355 -0.030163366 -0.006439336 0.11586679 0.30159357 0.122510195 -0.119209014 0.12673111 0.16301988 -0.1535411 -0.42584562 -0.21119992 -0.4887469 -0.35712403 -0.17657447 -0.31679466 -0.43017843 -0.043764025 0.05894447 0.13708664 0.13284081 0.35540035 0.280852 -0.252142 0.043237966 -0.17897378 0.070454 0.11266987 -0.2766509 0.10874479 0.20983152 -0.22831626 0.008202382 -0.20828114 -0.33333918 -0.3256011 -0.026608985 -0.16139378 -0.23596247 0.35217926 0.30016005 0.34445715 0.18869993 0.03758077 0.021267643 0.13117315 -0.14344671 0.1393396 0.03677584 0.16375498 -0.049122076 0.084916994 0.02534551 0.12834671 -0.13014981 0.16961615 -0.15398462 0.12635228 -0.1160532 0.017309263 0.08751231 -0.12863216 0.16046466 -0.012196663 -0.10762849 0.13290487 -0.40591493 0.16940884 0.15358278 -0.027356723 0.06639261 -0.21579778 -0.2815006 0.12207419 0.31563273 0.15712447 0.005233159 0.1386712 0.17926274 -0.4241369 -0.3626206 0.315046 0.2485153 0.091438375 0.018032642 -0.090885445 0.31708366 -0.14711322 -0.057227112 0.16195416 0.21410201 0.035326365 -0.02064315 0.22187187 0.1344447 -0.31395835 -0.18451309 0.08770972 -0.10774966 0.26244614 0.050656874 0.1904677 0.14497969 -0.10163522 -0.11931046 -0.087806575 -0.20838034 -0.22932932 -0.16766548 0.06874245 -0.1137225 -0.10254421 0.02390543 0.12983486 0.17726171 -0.23333815 0.06252433 0.28649583 0.08480097 0.22515085 -0.10103185 0.098000854 -0.2642645 -0.32735577 -0.26535505 0.0779438 -0.09251895 -0.075993225 -0.19217719 -0.01311844 -0.3800969 0.16606134 0.2010049 0.041613005 0.24605753 0.15735759 0.22625035 -0.06727304 -0.03467758 -0.0027128465 0.1935086 0.1304947 0.092821166 0.15138645 0.091084845 0.0157424 -0.096032366 -0.18505546 -0.05547788 -0.08623187 0.17077617 -0.0037247927 -0.050689846 0.15029705 0.13893045 -0.07331103 0.1456819 0.13445932 -0.12822527 0.09916962 0.12650311 -0.19371024 0.16215244 0.09330719 0.0894549 -0.19242236 -0.10198984 0.014453189 -0.24204937 -0.21991956 0.14986736 0.15841989 -0.2515792 0.09651154 -0.018087346 0.16125354 0.1403355 -0.025282117 0.16574292 -0.2317276 -0.31559718 0.009334655 -0.22368474 -0.16581565 0.04770294 0.27352512 0.27934155 0.33227944 0.1489783 0.41540065 0.30990365 0.2821929 0.4130143 0.3496298 -0.03553838 -0.29851073 -0.28501764 -0.16084479 -0.17913166 0.035203148 0.241883 -0.08994274 -0.019504389 -0.15832454 -0.0838603 0.21847735 0.12345864 -0.17077953 -0.18088293 -0.007801108 0.038595743 -0.22962026 -0.09905038 -0.08155821 0.10687838 0.20348854 -0.20566922 0.0655342 0.097858384 -0.23691458 0.07300543 -0.15247789 -0.303175 0.20775841 -0.22837463 -0.10890819 -0.17571838 0.028702226 0.07312569 0.19070733 -0.22888722 -0.19662634 -0.06974119 -0.31881097 -0.08130949 0.09678608 0.024562744 -0.20620556 0.3962871 0.27527258 -0.12700108 -0.044768993 -0.28499892 -0.2438475 -0.0015691716 0.14536631 0.09094106 -0.25601998 0.14256209 -0.028078256 -0.016660506 0.11360329 0.36670938 0.09912534 0.29122204 0.07191947 -0.13323104 -0.094709866 0.26522666 -0.14140601 -0.05126609 -0.16154665 -0.13760415 -0.21127963 0.3771214 0.15141438 -0.28867745 0.24190293 0.290772 0.14303456 0.34511775 -0.015106328 -0.092731446 0.012737156 -0.15867378 -0.25126585 -0.08569368 -0.43930465 -0.24132363 0.32849362 -0.41563544 0.39318544 -0.5156741 -0.14900692 0.18929997 0.45886615 -0.01719204 -0.07721607 0.22948207 0.44154 -0.33028203 -0.38899797 0.2517131 -0.33064216 -0.24592291 0.12657925 -0.13789722 0.29298043 0.0032788406 -0.017392652 -0.3154991 0.2431624 -0.014897413 -0.16370714 0.37181985 0.23991792 0.26278389 -0.15465015 -0.22118264 0.24928145 0.47033617 0.40215603 0.029449634 -0.14243214 -0.25035802 0.2838138 -0.23352532 0.0064299596 0.35551065 -0.07216369 -0.16359101 0.38357 0.30276105 0.29583994 0.24932428 0.36890003 0.04183753 -0.46651223 -0.4471398 0.10937219 0.06940364 -0.5412446 0.5837012 0.27245188 0.05465419 -0.37577948 -0.4280778 -0.05161501 -0.64281315 0.1147295 -0.094377436 -0.30128616 0.3294252 -0.11725759 0.4178781 0.35631457 0.295214 -0.053533487 -0.23497972 0.29457727 0.28430948 -0.24036452 -0.114526294 0.4028026 0.0144612035 -0.30621573 -0.032631364 -0.15113324 0.24031098 0.3652301 -0.2286127 -0.19826105 -0.3364902 0.22844653 0.3296682 0.3708763 0.34511364 0.18030535 -0.16688065 -0.47371763 0.1358618 -0.19457626 -0.11925255 0.21216716 0.090162605 0.11447113 0.366908 0.034854554 0.09703997 0.035356697 0.39402437 0.23601653 0.40169626 -0.071363546 -0.72412926 0.24154733 -0.16454525 0.35302168 0.36599043 -0.05145601 0.23138021 0.03465388 0.38801292 0.28016087 0.37587363 0.16219395 -0.42344794 -0.052705042 0.17781669 -0.2548163 -0.573088 0.00845406 0.08159778 -0.3422256 -0.5815174 0.07649539 0.49389765 0.3304397 0.11821317 -0.3563753 0.49737814 0.41823888 0.29411593 -0.0989943 0.097975105 -0.35137343 -0.02905045 -0.023072207 0.36775267 -0.37719837 -0.037996914 -0.09381172 -0.123828806 0.5186971 0.24415347 -0.02924087 -0.28046137 -0.008239249 -0.118205205 